digraph Tree {
node [shape=box] ;
0 [label="Sex_male <= 0.5\ngini = 0.479\nsamples = 534\nvalue = [322, 212]"] ;
1 [label="Pclass <= 2.5\ngini = 0.39\nsamples = 188\nvalue = [50, 138]"] ;
0 -> 1 [labeldistance=2.5, labelangle=45, headlabel="True"] ;
2 [label="Fare <= 22.0\ngini = 0.101\nsamples = 112\nvalue = [6, 106]"] ;
1 -> 2 ;
3 [label="gini = 0.245\nsamples = 28\nvalue = [4, 24]"] ;
2 -> 3 ;
4 [label="gini = 0.046\nsamples = 84\nvalue = [2, 82]"] ;
2 -> 4 ;
5 [label="Fare <= 20.8\ngini = 0.488\nsamples = 76\nvalue = [44, 32]"] ;
1 -> 5 ;
6 [label="gini = 0.499\nsamples = 61\nvalue = [29, 32]"] ;
5 -> 6 ;
7 [label="gini = 0.0\nsamples = 15\nvalue = [15, 0]"] ;
5 -> 7 ;
8 [label="Pclass <= 1.5\ngini = 0.336\nsamples = 346\nvalue = [272, 74]"] ;
0 -> 8 [labeldistance=2.5, labelangle=-45, headlabel="False"] ;
9 [label="Age <= 53.0\ngini = 0.489\nsamples = 75\nvalue = [43, 32]"] ;
8 -> 9 ;
10 [label="gini = 0.5\nsamples = 60\nvalue = [30, 30]"] ;
9 -> 10 ;
11 [label="gini = 0.231\nsamples = 15\nvalue = [13, 2]"] ;
9 -> 11 ;
12 [label="Age <= 13.0\ngini = 0.262\nsamples = 271\nvalue = [229, 42]"] ;
8 -> 12 ;
13 [label="gini = 0.496\nsamples = 22\nvalue = [10, 12]"] ;
12 -> 13 ;
14 [label="gini = 0.212\nsamples = 249\nvalue = [219, 30]"] ;
12 -> 14 ;
}